svm_type c_svc
kernel_type rbf
gamma 0.5
nr_class 2
total_sv 2473
rho -0.349893
label 1 0
probA -1.18916
probB -0.108776
nr_sv 1512 961
SV
0.6497910011558645 1:1 2:24331 
0.1486301953630088 1:0 2:1130 
0.701943113785523 1:0 2:1599 
1 1:0 2:1614 
1 1:0 2:2586 
0.6499775798580423 1:1 2:31644 
1 1:0 2:522 
0.285612880017227 1:0 2:887 
0.6500422981354872 1:0 2:5321 
0.608726496724483 1:0 2:1296 
0.2076734896853895 1:0 2:1317 
1 1:0 2:779 
0.2406226744106277 1:0 2:634 
0.008757984148866915 1:0 2:376 
0.2542300043016013 1:0 2:1324 
1 1:0 2:2696 
0.6540766627724444 1:0 2:1307 
1 1:0 2:514 
0.6501671956827469 1:1 2:14411 
0.6570923837369556 1:0 2:3389 
1 1:0 2:297 
1 1:0 2:3094 
1 1:0 2:2877 
0.4043424279435395 1:0 2:2218 
0.5324454116728707 1:1 2:2008 
1 1:0 2:486 
0.01474831553970186 1:0 2:948 
0.2921563378008669 1:0 2:1489 
0.6501695653913631 1:0 2:10547 
1 1:0 2:1411 
0.6500743559681962 1:0 2:3550 
0.4585014666538978 1:0 2:2622 
0.392599746300885 1:0 2:1336 
0.7322359849612734 1:0 2:4175 
0.5974499302348736 1:0 2:942 
0.649903866526484 1:0 2:4714 
0.5760128870222873 1:0 2:1349 
0.9489244587288426 1:0 2:1746 
0.1163851770727587 1:0 2:6339 
1 1:0 2:1305 
0.449923511365753 1:0 2:1414 
0.6276202956856874 1:0 2:558 
0.8039045484962997 1:0 2:133 
0.5984511533825327 1:0 2:429 
0.9966086698794445 1:0 2:475 
0.5303535045511125 1:0 2:2089 
1 1:0 2:516 
1 1:0 2:3735 
0.2951446607217736 1:0 2:1625 
0.6458066215442012 1:0 2:2427 
0.6500344933750846 1:1 2:37620 
0.5143246256847565 1:0 2:1150 
0.2997308810673918 1:0 2:2293 
0.1676973473174559 1:0 2:1252 
0.6500771908249058 1:0 2:64 
0.4980834014878954 1:0 2:820 
1 1:0 2:1780 
0.4304513380602235 1:0 2:677 
0.5017859791493817 1:0 2:237 
0.6500624109742495 1:0 2:2933 
0.7265669970245088 1:0 2:2092 
1 1:0 2:1903 
0.6498298481224363 1:0 2:4543 
0.6498820957812723 1:0 2:15678 
1 1:0 2:1253 
1 1:0 2:864 
0.5780940806951201 1:0 2:870 
1 1:0 2:1591 
0.7322397754824618 1:0 2:3214 
0.6501777027524069 1:0 2:5109 
1 1:0 2:4951 
1 1:0 2:2137 
0.6496493969542422 1:0 2:7125 
0.5433111397757762 1:0 2:729 
0.5828318988088255 1:0 2:1304 
1 1:0 2:3683 
0.7138361241948489 1:0 2:1133 
0.3278364898404357 1:0 2:1067 
0.3002274206212165 1:0 2:1104 
0.4098863035469895 1:0 2:209 
0.5556636134335242 1:0 2:1177 
1 1:0 2:929 
1 1:0 2:2863 
1 1:0 2:1285 
0.4231708874383616 1:0 2:1127 
0.6462221656862404 1:0 2:1754 
0.57312746107702 1:0 2:2813 
0.4044189619956907 1:1 2:2391 
1 1:0 2:7167 
1 1:0 2:1375 
1 1:0 2:1036 
1 1:0 2:557 
0.5948739704849385 1:0 2:1819 
0.5102914228101647 1:0 2:881 
0.6497810709081894 1:0 2:1835 
1 1:0 2:486 
0.3859511050941533 1:0 2:230 
1 1:0 2:1358 
1 1:0 2:307 
0.1009380426429569 1:0 2:1212 
0.1185408043517491 1:0 2:258 
0.02138947895530968 1:0 2:316 
0.1246092203487214 1:0 2:242 
0.3493906081980401 1:0 2:1289 
0.3918500707045003 1:0 2:1652 
0.5457279800617045 1:0 2:2405 
0.6497375234754235 1:0 2:6861 
0.5026282580488423 1:0 2:1451 
0.2937803099052389 1:0 2:1238 
0.2924649498636037 1:0 2:1736 
0.4737173605603223 1:0 2:720 
0.2270667466930562 1:0 2:627 
1 1:0 2:1067 
0.3356437756927203 1:0 2:1823 
1 1:0 2:3206 
0.7061347183732034 1:0 2:1425 
0.5745273185876894 1:0 2:690 
1 1:0 2:1483 
0.649728988752035 1:0 2:5974 
1 1:0 2:459 
0.2779085849551026 1:0 2:1771 
0.3622252980618507 1:0 2:1004 
1 1:0 2:764 
0.4552023418153421 1:0 2:1515 
0.8971559355315727 1:0 2:701 
0.5826516530939172 1:0 2:571 
0.6498812324200928 1:0 2:4390 
0.1603485995436029 1:0 2:1957 
0.848331499280162 1:0 2:2606 
0.6501631131430338 1:1 2:28928 
0.6500866104356594 1:0 2:6107 
0.2866019139408683 1:0 2:1378 
0.2788980649453374 1:0 2:1939 
0.2883018093536575 1:0 2:824 
0.6500725581055473 1:1 2:47741 
0.5945776997141473 1:0 2:1260 
1 1:0 2:1833 
1 1:0 2:465 
0.6391226732577759 1:0 2:1849 
1 1:0 2:348 
0.6601193411490042 1:0 2:114 
0.6500339370075635 1:0 2:2455 
0.4085403221246521 1:0 2:431 
0.6494969457014637 1:0 2:3519 
0.6501710431312897 1:1 2:26091 
1 1:0 2:1194 
0.2764487865812328 1:0 2:938 
0.2183182774677798 1:0 2:1115 
0.3292940155372224 1:0 2:1797 
1 1:0 2:1981 
0.2511014503801262 1:0 2:890 
0.8959304218658798 1:0 2:348 
0.4624103843085157 1:0 2:247 
0.6568775453084308 1:0 2:4947 
0.34735819238863 1:0 2:1609 
1 1:0 2:1363 
0.2329113242007722 1:0 2:319 
1 1:0 2:1152 
0.7322836800523792 1:0 2:2464 
0.6283963417208491 1:0 2:2047 
0.07663277305445304 1:0 2:1082 
0.08436925874554727 1:0 2:250 
0.6500354630419795 1:1 2:22014 
0.4598972952191028 1:0 2:872 
0.1688314720949765 1:0 2:244 
0.7792709907811901 1:0 2:306 
1 1:0 2:454 
0.6501307815731006 1:0 2:3379 
0.5194027401438108 1:0 2:1024 
0.09678953241697752 1:0 2:2088 
0.4380984415784384 1:0 2:301 
0.9322795354331744 1:0 2:1579 
1 1:0 2:843 
0.6608382594787006 1:0 2:1371 
0.4254505640796104 1:0 2:807 
0.4042238369047506 1:0 2:2198 
0.4103145185839436 1:0 2:155 
1 1:0 2:2967 
1 1:0 2:1649 
1 1:0 2:571 
0.5702911513281417 1:0 2:809 
0.4724643969124987 1:0 2:1120 
1 1:0 2:1150 
0.6457546527384055 1:0 2:2209 
0.3533818671867295 1:0 2:1270 
0.4112954703274356 1:0 2:595 
0.6496985813190117 1:0 2:4091 
1 1:0 2:1870 
0.4500835096283803 1:0 2:883 
1 1:0 2:779 
0.5150640619332364 1:0 2:1467 
0.6494800904098124 1:0 2:6007 
0.6499330229389154 1:0 2:29450 
0.5863887534466817 1:0 2:2375 
0.4050094338053185 1:0 2:2197 
0.1945099571728466 1:0 2:598 
0.6429532659132409 1:0 2:3413 
0.2084389929837226 1:0 2:511 
0.3634944934016479 1:0 2:1070 
1 1:0 2:976 
0.649938573653142 1:0 2:4692 
0.3602346885025284 1:0 2:606 
1 1:0 2:1067 
0.1721752015954069 1:0 2:1413 
0.6502293037417722 1:0 2:2954 
0.6503253789356949 1:0 2:2368 
1 1:0 2:502 
0.405268543347416 1:0 2:2219 
1 1:0 2:627 
0.7850267183208232 1:0 2:1590 
0.01982227520770026 1:0 2:686 
0.607098035010429 1:0 2:1885 
0.6500637667079335 1:0 2:4005 
0.5729041720210035 1:0 2:1926 
0.9566314539416841 1:0 2:2293 
0.6500117804271723 1:0 2:2355 
0.6501241385242541 1:1 2:30637 
1 1:0 2:1182 
0.3021861845101658 1:0 2:1498 
1 1:0 2:622 
1 1:1 2:2668 
0.5833848683787812 1:0 2:288 
0.903826547144494 1:0 2:829 
0.6500647069409616 1:1 2:27122 
0.8194843432583855 1:0 2:1043 
0.7222659947702171 1:0 2:608 
0.4768968035172234 1:0 2:949 
0.5152660631961021 1:0 2:1048 
0.5846495590605656 1:0 2:2282 
0.6429356526168106 1:1 2:29991 
0.4628192979610873 1:0 2:874 
0.303094397535406 1:0 2:2113 
0.305486354108441 1:0 2:1612 
0.5470970590234883 1:0 2:1908 
0.9542375613101641 1:0 2:1625 
0.3712602959519336 1:0 2:1479 
0.4350944043278573 1:0 2:251 
0.0307557878662251 1:0 2:1629 
0.1715237467959401 1:0 2:1653 
0.3608975659050776 1:0 2:471 
0.5256076179494984 1:0 2:343 
0.7108801907271203 1:0 2:215 
0.3661047977782751 1:0 2:662 
0.591451393803588 1:0 2:1499 
0.5731118933690076 1:0 2:1723 
1 1:0 2:517 
1 1:0 2:2511 
0.6096420494978128 1:0 2:1341 
0.902304367403322 1:0 2:1936 
1 1:0 2:499 
0.2645180915133303 1:0 2:1910 
0.6501530751875131 1:0 2:12534 
0.2557805332970031 1:0 2:1440 
0.4414965877175171 1:0 2:1234 
1 1:0 2:521 
0.220543251958262 1:0 2:921 
1 1:0 2:2563 
0.6458828837186555 1:0 2:2835 
0.404824568011259 1:0 2:1552 
0.5017391358842633 1:0 2:675 
1 1:0 2:944 
0.7661357067884274 1:0 2:3167 
1 1:0 2:1666 
1 1:0 2:551 
0.1359296043942534 1:0 2:1267 
1 1:0 2:637 
1 1:0 2:1411 
0.5037930484555679 1:0 2:1237 
1 1:0 2:2189 
0.5366049646094453 1:0 2:295 
0.5106653825454386 1:0 2:692 
1 1:0 2:3484 
0.2951879715298757 1:0 2:333 
0.2767136561014962 1:0 2:1883 
0.9592343104166637 1:0 2:663 
0.06076147020345526 1:0 2:277 
0.6501704460523866 1:1 2:31018 
0.5941969178793566 1:0 2:163 
1 1:0 2:447 
0.580360977661379 1:0 2:1915 
0.4656044020266847 1:0 2:1320 
1 1:0 2:943 
1 1:0 2:5983 
0.5198366100862558 1:0 2:665 
0.4369373214112872 1:0 2:579 
0.6501853153241095 1:1 2:25795 
0.3509040779224435 1:1 2:709 
1 1:0 2:1658 
0.4920401253840406 1:0 2:926 
0.649960129592163 1:0 2:399 
1 1:0 2:887 
0.379389757461695 1:0 2:1072 
1 1:0 2:2126 
1 1:0 2:1317 
0.6501239807282455 1:1 2:32658 
0.6501726070908111 1:0 2:13274 
0.08157559134059802 1:0 2:1516 
0.05887571078859954 1:0 2:717 
0.6501671216191836 1:0 2:18421 
1 1:0 2:477 
0.398624815379749 1:1 2:1016 
1 1:0 2:689 
0.5491643422593836 1:0 2:1769 
0.3769931642298947 1:0 2:1002 
0.6501631131430338 1:1 2:14048 
0.8090916612022756 1:0 2:2049 
0.8224635497414589 1:0 2:1779 
0.5902085956846792 1:0 2:388 
0.1410518345217967 1:0 2:578 
0.7902988382445368 1:0 2:576 
0.6306070686796793 1:0 2:2019 
0.9544060956866531 1:0 2:333 
0.1118408226499141 1:0 2:1485 
0.9031305597528303 1:0 2:1180 
1 1:0 2:2575 
0.6501998123553621 1:0 2:4547 
0.6501896909011854 1:0 2:4522 
0.7393423328452835 1:0 2:513 
0.6501882239122776 1:1 2:31174 
0.6505404036931424 1:0 2:1830 
1 1:0 2:517 
0.6435151681438432 1:0 2:532 
0.1638648747816712 1:0 2:1139 
0.733097101895962 1:0 2:989 
1 1:0 2:625 
1 1:0 2:1120 
1 1:0 2:583 
0.6388518753663583 1:0 2:442 
0.6359490081464814 1:0 2:1675 
0.4998762494924997 1:0 2:1302 
1 1:0 2:3116 
0.6501925334628719 1:0 2:8993 
0.5796294284144334 1:0 2:1449 
0.5122579749495415 1:0 2:801 
0.5928516158672825 1:0 2:315 
0.1389539318564669 1:0 2:574 
0.5355417858762695 1:0 2:449 
0.7205504793926496 1:0 2:1360 
0.650451258145361 1:1 2:20002 
0.3677083335211139 1:0 2:1760 
1 1:0 2:1857 
0.6501485640218112 1:0 2:2450 
0.2417024662154013 1:0 2:834 
0.5006320803345518 1:0 2:632 
0.5399594875613146 1:0 2:1205 
1 1:0 2:1367 
0.4922314322166899 1:0 2:286 
0.6497788434920142 1:0 2:2940 
0.6499083848970617 1:0 2:4418 
1 1:0 2:1311 
1 1:0 2:1147 
0.174682826024383 1:0 2:1323 
0.5202262269765039 1:0 2:2377 
0.5802982563886627 1:0 2:1050 
0.711164363198352 1:0 2:865 
0.572610554203267 1:0 2:2815 
1 1:0 2:3074 
0.454521353192702 1:0 2:1997 
0.1486733391928679 1:0 2:642 
0.5435541699108832 1:0 2:1419 
0.6616554801931178 1:0 2:2756 
0.2124552293174861 1:0 2:473 
0.4052995648398866 1:1 2:1469 
0.5805227490189253 1:0 2:190 
1 1:0 2:247 
0.6500350007790707 1:0 2:3687 
0.03393551167951468 1:0 2:790 
0.2852412876983247 1:0 2:1171 
0.3834924447678806 1:0 2:1747 
0.1920834807589599 1:0 2:1207 
0.4671510842291924 1:0 2:847 
0.1823552019090633 1:0 2:1114 
0.1346102201903656 1:0 2:1271 
1 1:0 2:501 
0.3597721800789044 1:0 2:243 
0.5831185540839759 1:0 2:581 
1 1:0 2:257 
1 1:0 2:467 
0.643854973857894 1:0 2:2104 
0.284215225322401 1:0 2:1257 
0.5781037866311156 1:0 2:1513 
0.6500708535929705 1:0 2:2235 
1 1:0 2:1064 
0.09932383491711833 1:0 2:842 
0.4015382440533323 1:0 2:638 
1 1:0 2:1721 
1 1:0 2:226 
1 1:0 2:1039 
0.9477372325247609 1:0 2:634 
0.5599408302609384 1:0 2:535 
0.5627084455243637 1:0 2:1343 
0.6500551851174297 1:0 2:2995 
0.2372068284837912 1:0 2:1565 
1 1:0 2:1146 
0.5198076560638727 1:0 2:1572 
0.4237895270283066 1:0 2:1221 
1 1:0 2:1605 
0.461698508780281 1:0 2:1280 
0.5856397724226656 1:0 2:714 
0.6437300944928358 1:0 2:1967 
0.3858433023734526 1:0 2:1863 
1 1:0 2:224 
0.3293641539288138 1:0 2:597 
0.3383830453414696 1:0 2:201 
0.6501758093727019 1:0 2:9175 
0.6501695435496742 1:1 2:28901 
0.9972758748120664 1:0 2:2012 
0.2578551370343191 1:0 2:748 
0.05684540865662563 1:0 2:453 
0.3364755034485791 1:0 2:1795 
1 1:0 2:2139 
1 1:0 2:810 
0.6499840439276683 1:0 2:3804 
1 1:0 2:535 
0.6501525166646099 1:0 2:11775 
0.5673898238198988 1:0 2:1476 
0.1523509570131583 1:0 2:1537 
0.2980501660554992 1:0 2:1057 
0.3258383787250975 1:0 2:919 
0.3673954269033516 1:0 2:1217 
0.6390836737241026 1:0 2:584 
1 1:0 2:2775 
0.9874318207937719 1:0 2:2043 
0.3830155141991349 1:0 2:1190 
0.5542361502564017 1:0 2:1423 
0.8447890076615692 1:0 2:1227 
0.4038848229299942 1:0 2:1538 
0.5776365407084123 1:0 2:586 
1 1:0 2:2075 
0.5735313454577042 1:0 2:1789 
1 1:0 2:1022 
0.9877061219603656 1:0 2:429 
0.6499296808213838 1:1 2:25803 
0.1639657856716286 1:0 2:1601 
1 1:0 2:739 
1 1:0 2:5907 
0.07652959351667946 1:0 2:873 
0.4730920734705785 1:0 2:1116 
0.6496719204161217 1:0 2:110437 
0.9297551425516321 1:0 2:1489 
0.8673861825450762 1:0 2:2782 
0.8418381247352433 1:0 2:2634 
1 1:0 2:1177 
0.1454530317094074 1:0 2:1198 
0.3774026895673958 1:0 2:320 
0.02344195291894077 1:0 2:542 
0.6503293724898365 1:0 2:2488 
1 1:0 2:1866 
0.2959060835614986 1:0 2:1457 
0.6499570499500088 1:0 2:6011 
0.01027945865010718 1:0 2:1657 
0.5220355081105141 1:0 2:359 
0.3016728230363969 1:0 2:673 
0.2405664804862125 1:0 2:445 
0.6498540528561553 1:0 2:2701 
0.9788968099421304 1:0 2:1479 
0.1354971561549334 1:0 2:1155 
0.6427778325835222 1:0 2:2417 
0.6612221354166009 1:0 2:2685 
0.5384333704657643 1:0 2:1777 
0.05336069034720097 1:0 2:187 
1 1:0 2:2004 
0.2634283049025978 1:0 2:894 
0.9967860168987923 1:0 2:1177 
1 1:0 2:1428 
0.6501589690919289 1:1 2:24251 
0.6499904101878935 1:0 2:1990 
0.7828543917609161 1:0 2:2186 
0.6497831152614411 1:0 2:4414 
0.493576269844835 1:0 2:1219 
0.7789147357969582 1:0 2:404 
0.4049493415399124 1:1 2:1537 
0.5183647497426289 1:0 2:718 
0.5935777297820108 1:0 2:1303 
1 1:0 2:233 
0.6501167973475592 1:0 2:2853 
1 1:0 2:671 
0.3204157629017009 1:0 2:1970 
1 1:0 2:719 
0.4114571919239273 1:0 2:2831 
0.399691486402416 1:0 2:1911 
0.7776777661205143 1:0 2:2346 
1 1:0 2:2801 
0.6415454401968304 1:0 2:2349 
0.6518558365166929 1:0 2:796 
0.1721613483672043 1:0 2:1446 
0.3466323905590806 1:0 2:1313 
0.1316239161002503 1:0 2:2878 
0.6423811956387253 1:0 2:2550 
1 1:0 2:1420 
1 1:0 2:457 
1 1:0 2:826 
1 1:0 2:374 
1 1:0 2:453 
0.2808292226478993 1:0 2:708 
1 1:0 2:485 
0.4035471879400673 1:0 2:1716 
1 1:0 2:522 
0.6429048133268231 1:0 2:3056 
0.6501454181975851 1:0 2:14390 
1 1:0 2:1170 
1 1:0 2:1741 
0.4758166471366245 1:0 2:731 
1 1:0 2:1032 
0.3940603097542074 1:0 2:2525 
0.4057594435143069 1:0 2:2660 
0.9094675659036978 1:0 2:219 
0.4111948343220395 1:0 2:2033 
0.6429086714909168 1:0 2:2547 
0.1736940375106799 1:0 2:908 
1 1:0 2:1088 
0.5801168501419657 1:0 2:876 
0.2599854157761001 1:0 2:893 
0.6611572515753359 1:0 2:2143 
0.8456939958059518 1:0 2:699 
0.8041373469787442 1:0 2:1998 
0.2277627539053938 1:0 2:760 
0.4642136422640258 1:0 2:1458 
1 1:0 2:3324 
0.6496623335188976 1:0 2:3001 
1 1:0 2:421 
1 1:0 2:568 
0.5257375229415058 1:0 2:2115 
0.6501656052158467 1:0 2:4507 
0.44532006211215 1:0 2:197 
0.5362644125102898 1:0 2:1020 
0.5093009485816132 1:0 2:1706 
0.2054491880495764 1:0 2:433 
1 1:0 2:1034 
0.650153506357669 1:0 2:2847 
0.6501520908722688 1:0 2:16216 
0.6077482028331214 1:0 2:1737 
0.5901477722979388 1:0 2:1283 
0.4792700929287824 1:0 2:1018 
1 1:0 2:1056 
0.6501613173231928 1:1 2:3180 
0.6302705617391448 1:0 2:504 
0.3232827317620527 1:0 2:198 
0.401113202866983 1:0 2:590 
1 1:0 2:641 
0.5699247729766072 1:0 2:1125 
0.548949815670423 1:0 2:1394 
0.5584632378411725 1:0 2:947 
0.655658018357142 1:0 2:2286 
0.6582164251867614 1:0 2:2060 
0.1838380361191404 1:0 2:1017 
0.4378246774612233 1:0 2:1225 
0.05898566484011308 1:0 2:917 
0.2178397862453549 1:0 2:897 
0.9271654897595674 1:0 2:584 
0.4410338657320554 1:0 2:1322 
0.508511183141142 1:0 2:1200 
1 1:0 2:566 
1 1:0 2:755 
1 1:0 2:2212 
0.4018271260039132 1:0 2:1728 
0.5726824753514199 1:0 2:1924 
0.5717959733360622 1:0 2:687 
1 1:0 2:580 
0.5810659446522503 1:0 2:2618 
0.001046650201254357 1:0 2:750 
0.5259498520152786 1:0 2:1844 
0.692132072582383 1:0 2:1339 
0.3807352049022883 1:0 2:1409 
0.2368822248298874 1:0 2:2003 
0.9536865226642867 1:0 2:2060 
0.649704793461289 1:1 2:21992 
0.09210343186424505 1:0 2:783 
0.6496735256024088 1:0 2:4775 
0.4514822614995634 1:0 2:1008 
0.1895618042036456 1:0 2:1613 
0.6501604625443439 1:0 2:2563 
1 1:0 2:6830 
0.08637377229748239 1:0 2:721 
0.4811736276765348 1:0 2:1223 
0.1012429867236455 1:0 2:1118 
0.6497234097790473 1:0 2:7759 
0.4692122323547258 1:0 2:716 
0.8668601046473872 1:0 2:1940 
0.9272227825977086 1:0 2:2582 
0.1045574578449704 1:0 2:1463 
0.3086956125185205 1:0 2:4066 
1 1:0 2:3065 
0.4790224815830851 1:0 2:271 
0.1647723128151386 1:0 2:358 
0.9015858845820313 1:0 2:1238 
1 1:0 2:222 
1 1:0 2:493 
0.8064793734508164 1:0 2:514 
0.5512613391974691 1:0 2:1295 
0.831680361148267 1:0 2:411 
0.4048207872181926 1:0 2:2360 
1 1:0 2:1692 
0.7120339366598877 1:0 2:179 
0.9423897639272207 1:0 2:1757 
0.6496669419349379 1:0 2:4558 
0.2999783335385731 1:0 2:381 
0.05170452093295877 1:0 2:656 
1 1:0 2:1036 
0.6612355682402955 1:0 2:2599 
0.4059868460749309 1:0 2:1803 
1 1:0 2:758 
0.4771470447622865 1:0 2:1287 
0.649811216713691 1:0 2:4535 
1 1:0 2:917 
0.8319003612804696 1:0 2:1089 
0.5577304591562724 1:0 2:1860 
0.3528713476841097 1:0 2:1077 
0.9650600942874741 1:0 2:504 
0.9692472708910702 1:0 2:1609 
1 1:0 2:639 
0.6496703036226261 1:0 2:4238 
0.5815180063585854 1:0 2:1564 
0.1596771666142907 1:0 2:1157 
0.5823717234905545 1:0 2:1300 
0.6321412912863551 1:0 2:1622 
0.3826491864518758 1:0 2:1772 
0.5763439095885683 1:0 2:1353 
0.6498009055272366 1:0 2:11476 
0.5744881318326936 1:0 2:879 
0.4037789035082741 1:0 2:1802 
0.649796285735156 1:0 2:6811 
1 1:0 2:2441 
1 1:0 2:540 
1 1:0 2:1084 
1 1:0 2:391 
0.1506178966997867 1:0 2:839 
0.6428244641352225 1:0 2:4815 
0.9602647480883193 1:0 2:1690 
1 1:0 2:1636 
1 1:0 2:2087 
0.6501676464006524 1:0 2:18648 
0.4569804441789242 1:0 2:1103 
0.108359344995391 1:0 2:1668 
0.5171665821957518 1:0 2:780 
0.7542670633914017 1:0 2:955 
0.8057156939861286 1:0 2:974 
1 1:0 2:4636 
0.3958999973643207 1:0 2:525 
0.3538574876602305 1:0 2:1001 
1 1:0 2:1749 
0.4088785397903448 1:0 2:2078 
0.6499863042571066 1:0 2:6567 
1 1:0 2:1221 
0.6407543784233372 1:0 2:2631 
0.6501439052427239 1:0 2:4926 
0.6499093295089493 1:0 2:8098 
0.1059416560934193 1:0 2:1758 
0.04461796343651875 1:0 2:1490 
0.05275985874674233 1:0 2:649 
0.649603406045798 1:0 2:2387 
0.9920312435724798 1:0 2:783 
1 1:0 2:1476 
0.6428271966637173 1:0 2:4458 
1 1:0 2:257 
0.6500145531013974 1:0 2:4473 
0.6500535984147906 1:0 2:9318 
0.272908251018662 1:0 2:1392 
0.3611255592056166 1:0 2:599 
0.7316121469960164 1:0 2:1876 
0.6607688726312886 1:0 2:2277 
0.4043486419633274 1:1 2:2016 
0.1487277016344941 1:0 2:786 
0.1748679088839137 1:0 2:1269 
0.04043361855354072 1:0 2:979 
0.7109750015882961 1:0 2:1697 
1 1:0 2:467 
1 1:0 2:2944 
0.6465532253141886 1:0 2:628 
1 1:0 2:859 
0.3404541702235424 1:0 2:2379 
1 1:0 2:979 
1 1:0 2:1304 
0.5837957479497422 1:0 2:167 
1 1:0 2:362 
1 1:0 2:616 
0.1653865259079587 1:0 2:814 
0.4230651216078266 1:0 2:227 
0.2638218865015775 1:0 2:1245 
0.1439074185831028 1:0 2:978 
0.6498280273863855 1:0 2:3426 
1 1:0 2:1089 
0.5820546428320902 1:0 2:1274 
0.1569241455729531 1:0 2:915 
0.955935057966625 1:0 2:2624 
0.6425425042140228 1:0 2:2435 
0.9355014064216816 1:0 2:1998 
0.283647411035815 1:0 2:1136 
0.8551027409016881 1:0 2:628 
0.2140111446105853 1:0 2:432 
0.5873419651103509 1:0 2:1519 
0.9641954725232117 1:0 2:1141 
0.5044098528083523 1:0 2:1474 
0.6373164528096777 1:0 2:1346 
1 1:0 2:1003 
0.2148726278935236 1:0 2:1705 
0.9837159347198317 1:0 2:562 
1 1:0 2:1541 
0.5661903342001169 1:0 2:2107 
0.2561144887698121 1:0 2:1315 
1 1:0 2:1524 
1 1:0 2:2087 
0.6418520599042814 1:0 2:1357 
1 1:0 2:669 
0.5474544284077459 1:0 2:867 
1 1:0 2:2174 
0.05556148794487346 1:0 2:417 
1 1:0 2:9015 
0.4180233839338669 1:0 2:434 
1 1:0 2:2030 
0.6427169295054503 1:0 2:944 
0.6010349002749884 1:0 2:2057 
0.1610531605651676 1:0 2:357 
0.264876051388104 1:0 2:229 
1 1:0 2:1134 
0.6500385376742197 1:0 2:2928 
0.09464520315366118 1:0 2:1640 
0.9470819242990681 1:0 2:1116 
0.01948689838847267 1:0 2:785 
0.5093632605234767 1:0 2:1453 
0.1039873965209717 1:0 2:1909 
1 1:0 2:230 
0.4916302692110371 1:0 2:186 
0.3830232730404086 1:0 2:1817 
0.5690920435895734 1:0 2:789 
0.3331420715162939 1:0 2:885 
1 1:0 2:417 
0.525833105136624 1:0 2:393 
1 1:0 2:1687 
1 1:0 2:603 
0.9404446104647484 1:0 2:1669 
0.6454763035405864 1:1 2:4232 
1 1:0 2:814 
1 1:0 2:476 
0.6430385316703243 1:0 2:2432 
0.650137558078846 1:1 2:34833 
0.01039091885650189 1:0 2:1226 
1 1:0 2:1333 
0.6501774354324354 1:0 2:19771 
0.4041609086157865 1:0 2:1551 
1 1:0 2:2000 
0.652870926033 1:1 2:527 
1 1:0 2:407 
1 1:0 2:172 
1 1:0 2:1149 
0.642535128100828 1:0 2:3973 
0.6663686012288221 1:0 2:4099 
0.2635231965119939 1:0 2:770 
0.8456586461273549 1:0 2:371 
0.3896475851299609 1:0 2:1577 
0.3631667807887029 1:0 2:245 
0.03483385403766914 1:0 2:1060 
0.4558495984848986 1:0 2:439 
0.5684096379770734 1:0 2:2109 
0.6432078050629459 1:0 2:2230 
1 1:1 2:2162 
0.5723907517887762 1:0 2:4394 
0.7322316142852094 1:0 2:2649 
0.6428147387374958 1:0 2:3053 
0.6499071314216297 1:0 2:3355 
1 1:0 2:465 
0.8443431206871097 1:0 2:679 
0.6459235505413338 1:0 2:1732 
0.5680258249448061 1:0 2:655 
0.2598778957568632 1:0 2:2002 
0.2029426521710581 1:0 2:707 
0.660572974878973 1:0 2:1946 
0.095817233324084 1:0 2:261 
0.8689508982951297 1:0 2:658 
0.6317333292542857 1:0 2:772 
0.3563621944927418 1:0 2:657 
0.2097682634025481 1:0 2:1078 
0.2130620034230712 1:0 2:997 
0.9177841712125954 1:0 2:926 
0.9821528040994999 1:0 2:506 
1 1:0 2:947 
0.6500652527531882 1:0 2:3438 
0.6192214983867194 1:0 2:1172 
0.3953172975582209 1:0 2:210 
1 1:0 2:793 
0.6428555556018681 1:0 2:3416 
0.7950464033032347 1:0 2:983 
0.9147545658594141 1:0 2:2051 
1 1:0 2:841 
0.3204580145866006 1:0 2:1080 
0.4905988184328646 1:0 2:165 
0.3668091889330841 1:0 2:991 
0.120924513334427 1:0 2:684 
0.3262332869095687 1:0 2:2406 
0.1105300387393884 1:0 2:1464 
0.6499834157902175 1:0 2:8140 
0.4098190251830499 1:0 2:683 
0.6426534445924531 1:0 2:4455 
0.3169505848180117 1:0 2:498 
0.6564125205554283 1:0 2:7746 
0.6428317326012005 1:1 2:29994 
0.6456113346204563 1:0 2:2528 
0.4380321653438604 1:0 2:573 
1 1:0 2:1763 
0.2304399075245712 1:0 2:1569 
0.06097364879690209 1:0 2:2136 
0.6506306669985142 1:1 2:10082 
0.1068790906346104 1:0 2:1076 
0.4906056208999087 1:0 2:958 
0.6503636203369907 1:1 2:27133 
0.491872378786283 1:0 2:1266 
0.3761222163051063 1:0 2:1069 
0.0723969170013411 1:0 2:676 
0.4767105543811339 1:0 2:1567 
1 1:0 2:159 
0.785488167911049 1:0 2:5599 
0.6503569846301092 1:0 2:11688 
0.6862399888059232 1:0 2:1167 
1 1:0 2:1735 
0.3930872973942405 1:0 2:1015 
0.9994525311211775 1:0 2:376 
1 1:0 2:857 
0.8500321154029467 1:0 2:1203 
0.0439583734392375 1:0 2:519 
0.6503821605648165 1:0 2:3037 
0.1397743359847408 1:0 2:1128 
0.19144542929919 1:0 2:797 
0.6612969328902023 1:0 2:3563 
0.6497954017136318 1:0 2:2157 
0.1226020512922663 1:0 2:923 
0.18758516816425 1:0 2:564 
0.7375722922307215 1:0 2:2342 
0.3945588440462331 1:0 2:154 
0.07512479778735537 1:0 2:446 
0.5754509732999252 1:0 2:235 
0.6503883394732717 1:0 2:4485 
1 1:0 2:1387 
0.7965559523370179 1:0 2:756 
0.2636339224145225 1:0 2:647 
0.5704045059439735 1:0 2:1026 
0.3997832619756614 1:0 2:193 
0.06405973102017765 1:0 2:556 
0.09694641192642238 1:0 2:1770 
0.6595805937173473 1:0 2:403 
0.5260642711120824 1:0 2:1108 
0.1835471201245073 1:0 2:998 
0.5173757465010751 1:0 2:260 
0.650143106215575 1:0 2:2268 
0.7858420183555189 1:0 2:2868 
0.9869847685274766 1:0 2:1186 
0.001333874671276686 1:0 2:327 
0.7335230736458903 1:0 2:253 
1 1:0 2:1433 
1 1:0 2:539 
0.9976387010234687 1:0 2:1629 
0.555640275453769 1:0 2:1976 
0.5654280121318709 1:0 2:1678 
1 1:0 2:954 
0.650058437479836 1:0 2:4222 
0.602391183909445 1:0 2:956 
0.09845634614992263 1:0 2:1393 
1 1:0 2:4585 
0.3709002531393434 1:0 2:349 
0.5369165759028327 1:0 2:1097 
0.6504157639396932 1:0 2:5246 
0.3788943562240965 1:0 2:706 
1 1:0 2:877 
1 1:0 2:1445 
0.6501770923524892 1:1 2:30392 
0.9982175738651542 1:0 2:1184 
0.59034779077502 1:0 2:911 
0.7433769554561557 1:0 2:3817 
0.4270478098137956 1:0 2:474 
0.8985243743244844 1:0 2:934 
0.5545821214683605 1:0 2:704 
1 1:0 2:4104 
1 1:0 2:2039 
0.5358119767360229 1:0 2:1455 
0.4984374833316045 1:0 2:1095 
0.3436970352891316 1:0 2:1216 
1 1:0 2:606 
1 1:0 2:802 
0.6503056106457136 1:0 2:2539 
0.3917070915844899 1:0 2:1391 
0.6425749359262872 1:0 2:964 
0.3864286071446184 1:0 2:1258 
1 1:0 2:1244 
0.7853199040495048 1:0 2:3528 
1 1:0 2:3027 
0.5943614514686568 1:0 2:1013 
0.4540594002995876 1:0 2:2112 
0.3988685121915775 1:0 2:2713 
0.2421828857382489 1:0 2:1412 
0.5246169190986995 1:0 2:356 
0.1142502024263537 1:0 2:318 
0.4269208025752199 1:0 2:837 
1 1:0 2:579 
1 1:0 2:374 
0.2425415304078443 1:0 2:888 
0.1574351033155812 1:0 2:646 
0.5819073678642248 1:0 2:303 
0.3379008623202513 1:0 2:1597 
0.8672254363696416 1:0 2:2690 
0.9733520994813533 1:0 2:1899 
1 1:0 2:2766 
0.6501662237444845 1:0 2:4249 
1 1:0 2:3444 
0.5841858141224151 1:0 2:818 
1 1:0 2:937 
1 1:0 2:760 
0.6501378945808097 1:0 2:11192 
0.2706468235328973 1:0 2:889 
0.6385279088932644 1:0 2:537 
0.5676177915269875 1:0 2:1791 
0.06102097191861209 1:0 2:1326 
0.6569131702820734 1:0 2:2962 
0.5127881920388451 1:0 2:508 
0.3157166959195228 1:0 2:822 
0.8550793942648115 1:0 2:172 
0.986959252591237 1:0 2:942 
0.5891733613875165 1:0 2:363 
0.3857133773673974 1:0 2:1087 
1 1:0 2:1842 
0.4054023472558878 1:0 2:1717 
0.1378725525762693 1:0 2:228 
0.650150230724414 1:1 2:19850 
0.3836502260313994 1:0 2:805 
1 1:0 2:1811 
0.3276909679874686 1:0 2:1469 
0.6566950591927879 1:0 2:2554 
1 1:0 2:2824 
0.2279595037409603 1:0 2:1122 
0.4209983056438488 1:0 2:337 
0.5727313401771882 1:0 2:2245 
1 1:0 2:317 
1 1:0 2:546 
0.5144297265171143 1:0 2:1913 
0.998767676707215 1:0 2:1657 
0.342650193575239 1:0 2:1408 
0.3739867977779062 1:0 2:619 
0.6365517422457609 1:0 2:1583 
1 1:0 2:774 
1 1:0 2:2671 
0.7780964508445299 1:0 2:416 
0.3212438308832046 1:0 2:1007 
0.2330190779757216 1:0 2:823 
1 1:0 2:1082 
0.4800026202053616 1:0 2:747 
1 1:0 2:1852 
0.3928367854521553 1:0 2:3228 
0.7072973688854072 1:0 2:565 
0.9066943780089576 1:0 2:1781 
0.9347713713574362 1:0 2:1203 
0.180766002781046 1:0 2:1199 
0.6501500141160571 1:0 2:2733 
1 1:0 2:405 
0.4599119075974718 1:0 2:803 
0.2849808183626065 1:0 2:1086 
0.6501717621955767 1:1 2:7670 
1 1:0 2:610 
0.6457466295102476 1:0 2:151 
0.6501206670310801 1:0 2:4148 
0.2813346720703739 1:0 2:907 
0.5497242030368994 1:0 2:1695 
0.9712218772012325 1:0 2:246 
0.3506496330808442 1:0 2:1110 
1 1:0 2:858 
0.001081161373419709 1:0 2:1703 
0.09315746307171043 1:0 2:851 
1 1:0 2:1211 
1 1:0 2:347 
0.3246934151044136 1:0 2:1035 
0.2627151388937699 1:0 2:696 
1 1:0 2:539 
0.3908445594349519 1:0 2:1046 
0.4126496786643123 1:0 2:1131 
1 1:0 2:208 
0.253580843148856 1:0 2:1417 
0.1557033608847582 1:0 2:821 
1 1:0 2:128 
0.3614782558689175 1:0 2:1129 
0.4585432283120923 1:0 2:184 
1 1:0 2:1054 
0.6438801976387596 1:0 2:2501 
0.5819807722018251 1:0 2:1402 
1 1:0 2:149 
1 1:0 2:869 
0.739942144888021 1:0 2:774 
1 1:0 2:937 
0.1280102958861426 1:0 2:833 
1 1:0 2:1654 
1 1:0 2:2028 
0.5285386251051875 1:0 2:1824 
1 1:0 2:664 
1 1:0 2:490 
0.5923462678438298 1:0 2:2037 
0.5491021888186901 1:0 2:426 
1 1:0 2:972 
0.1024851533240391 1:0 2:1815 
0.4113449888701982 1:0 2:1335 
0.6501722033082926 1:1 2:32680 
0.1678679041765441 1:0 2:3321 
0.5942042659538668 1:0 2:330 
0.6496900247416034 1:0 2:2482 
0.6501702902648732 1:0 2:1529 
1 1:0 2:564 
0.2158419908813578 1:0 2:886 
0.5459340711149425 1:0 2:436 
1 1:0 2:2424 
0.5317861077639048 1:0 2:1406 
1 1:0 2:182 
0.650359121208529 1:0 2:3929 
0.3946660017093296 1:0 2:338 
0.650161945697826 1:0 2:5431 
0.008784088199240758 1:0 2:940 
0.5585412530831109 1:0 2:1752 
0.9367018681718237 1:0 2:2055 
0.6501611923749951 1:0 2:8424 
0.968558448610323 1:0 2:765 
1 1:0 2:523 
0.4513516226672257 1:0 2:994 
0.5087287994847494 1:0 2:2620 
0.7781720256981026 1:0 2:1586 
1 1:0 2:785 
0.4117240771391898 1:0 2:2027 
0.7028173503132268 1:0 2:175 
0.4428811978284868 1:0 2:1248 
0.4003505500716706 1:0 2:589 
1 1:0 2:234 
0.3988206940312187 1:0 2:1729 
0.6501670964099386 1:0 2:4043 
0.3809877623108283 1:0 2:369 
1 1:0 2:3322 
1 1:0 2:2380 
0.271782106238119 1:0 2:927 
0.4462106249495195 1:0 2:900 
1 1:0 2:1218 
1 1:0 2:640 
1 1:0 2:128 
0.8507299820640074 1:0 2:970 
0.6503663111385555 1:0 2:5585 
0.9200302702504983 1:0 2:511 
0.6497369465961017 1:0 2:1398 
0.008458254378976793 1:0 2:1106 
0.5726887600759514 1:0 2:4396 
0.6499377615758649 1:0 2:1556 
0.58376106720603 1:0 2:284 
0.6501777723069346 1:0 2:6079 
0.6451003603959777 1:0 2:1684 
0.00454286267920942 1:0 2:1892 
0.03552582715299826 1:0 2:380 
0.4117712874477689 1:0 2:726 
0.1115482212760207 1:0 2:1286 
1 1:0 2:525 
0.1572163953197729 1:0 2:659 
0.6500190394561809 1:0 2:4385 
0.4857553174119643 1:0 2:724 
1 1:0 2:461 
1 1:0 2:1105 
0.6501757764882439 1:0 2:2914 
1 1:0 2:5535 
1 1:0 2:3334 
0.4993184410361831 1:0 2:1404 
0.3029203006303678 1:0 2:387 
0.3354932116450224 1:0 2:1247 
0.8482224849517755 1:0 2:775 
0.6272235593514188 1:0 2:461 
0.4504014415561777 1:1 2:727 
0.1691695627012121 1:0 2:813 
0.6457942202535211 1:0 2:3231 
0.4048590346708331 1:0 2:2391 
0.4140945609414765 1:0 2:2130 
1 1:0 2:2639 
0.537632585580766 1:0 2:1197 
0.3764300554829489 1:0 2:1231 
1 1:0 2:277 
1 1:0 2:1784 
0.5777941614526565 1:0 2:4067 
0.9979517164324309 1:0 2:1082 
0.2994557698134223 1:0 2:438 
0.6501722498979624 1:0 2:5893 
1 1:1 2:1356 
0.1396443274833614 1:0 2:899 
0.6500715248990038 1:0 2:2984 
0.4573089008654893 1:0 2:1100 
0.527483262185071 1:0 2:1380 
0.649721045945561 1:0 2:7173 
0.6501452018590079 1:0 2:13246 
1 1:0 2:1154 
0.02872708767748256 1:0 2:933 
0.3317004575302439 1:0 2:262 
0.5891114118966174 1:0 2:1774 
1 1:0 2:4161 
0.3774301040229365 1:0 2:1005 
0.6422344168691742 1:0 2:2154 
0.5985616659229589 1:0 2:352 
0.5181038926776411 1:0 2:1059 
0.8463008116449553 1:0 2:681 
0.5789840173558028 1:0 2:2117 
0.5259494666989861 1:0 2:1365 
0.3448793514252724 1:0 2:577 
1 1:0 2:2022 
0.3571247316391613 1:0 2:1596 
0.4461457190062162 1:0 2:275 
1 1:0 2:1344 
0.3886965529476722 1:0 2:2129 
0.1038882141743518 1:0 2:825 
0.5477650234161248 1:0 2:1294 
0.6497044155340729 1:0 2:8851 
0.0002143210456072803 1:0 2:800 
0.4076950022708737 1:0 2:1901 
0.2754621553395341 1:0 2:1816 
1 1:0 2:3622 
0.5971949352736119 1:0 2:2337 
0.5672494036203589 1:0 2:650 
0.4819293555478468 1:0 2:1377 
0.4823038874525555 1:0 2:2284 
1 1:0 2:542 
0.1370372940674113 1:0 2:2587 
1 1:0 2:1661 
0.2969687639025745 1:0 2:1045 
0.6496021557574889 1:0 2:4302 
0.9330011613483009 1:0 2:820 
0.5240202160129848 1:0 2:273 
0.2410872882220335 1:0 2:742 
0.05781488498166835 1:0 2:270 
0.6501822249847691 1:0 2:11130 
0.4201724828463352 1:0 2:835 
1 1:0 2:245 
0.7623464595258657 1:0 2:1089 
0.4039407244736016 1:1 2:1970 
0.05893090675521086 1:0 2:328 
0.6455993176863128 1:0 2:2421 
0.5674788238366186 1:0 2:1240 
0.4757531287530364 1:0 2:249 
0.007627913458062749 1:0 2:1514 
0.6505781236224651 1:0 2:4053 
0.4403057792251552 1:0 2:1272 
0.7314537366652029 1:0 2:322 
0.4279967137421203 1:0 2:996 
0.4413870654639013 1:0 2:451 
0.6505793580871445 1:0 2:8219 
1 1:0 2:331 
0.6994832402532751 1:0 2:1978 
1 1:0 2:1712 
0.347483183161146 1:0 2:350 
0.1300571850706994 1:0 2:806 
0.6500615568226258 1:0 2:6363 
0.4381363032674289 1:0 2:694 
0.4836089280568329 1:0 2:1075 
0.3461794693004872 1:0 2:575 
0.4801654650752756 1:0 2:710 
0.4283204139827117 1:0 2:791 
0.6501677596508904 1:0 2:4188 
0.3934131006817574 1:0 2:2832 
0.9456700926362714 1:0 2:1958 
0.2993573357232818 1:0 2:1099 
1 1:0 2:639 
0.4725247738105106 1:0 2:188 
0.87811823271738 1:1 2:935 
0.5131027996631035 1:0 2:812 
0.9608356769525767 1:0 2:697 
0.650132046869673 1:0 2:2885 
0.4234742562454095 1:0 2:909 
0.6607411538503916 1:0 2:2750 
0.07834823444981549 1:0 2:723 
0.5736342087607647 1:0 2:2506 
0.5915905771226063 1:0 2:2000 
0.1101171083747357 1:0 2:804 
0.6503475333348854 1:0 2:24403 
0.5908017803390837 1:0 2:1742 
0.5195760759278947 1:0 2:1744 
0.5145354600599155 1:0 2:815 
0.6501844609069599 1:0 2:3312 
0.6835464495206973 1:0 2:985 
0.4019440068665054 1:0 2:194 
0.6503035460342227 1:0 2:3957 
0.1641151083067522 1:0 2:993 
0.4590565843003003 1:0 2:1517 
0.5222750071697148 1:0 2:1634 
0.02283251798331891 1:0 2:510 
0.5420637164026776 1:0 2:1814 
0.5849490776748139 1:0 2:1506 
0.4375615620564307 1:0 2:618 
0.9351771650993603 1:0 2:381 
0.009712234506569467 1:0 2:560 
0.5473525549673682 1:0 2:799 
0.6503909482484119 1:1 2:12963 
0.4639962943512029 1:0 2:1056 
0.6518401557746014 1:0 2:1208 
0.2819884114383162 1:0 2:896 
0.6503275093453944 1:0 2:4858 
0.9649847778894127 1:0 2:1136 
0.6499701786223464 1:0 2:4334 
0.6496955902246478 1:0 2:3648 
1 1:0 2:1108 
0.4949138888902568 1:0 2:744 
0.6497852438359772 1:0 2:3544 
0.9655923266262809 1:0 2:558 
0.2990758905598869 1:0 2:605 
0.6501344399769349 1:0 2:3497 
1 1:0 2:752 
0.3064341420791755 1:0 2:1893 
1 1:0 2:3965 
0.5859523970867974 1:0 2:1472 
0.7659572773598874 1:0 2:4259 
0.5833292929242995 1:0 2:960 
0.5787043695289558 1:0 2:1382 
0.6080061551271631 1:0 2:550 
0.4025256534142683 1:0 2:2079 
0.650138666316604 1:0 2:5028 
1 1:0 2:601 
0.327362702680276 1:0 2:1233 
0.6668450295727695 1:1 2:982 
0.259350036877854 1:0 2:462 
0.4003075075358805 1:0 2:1510 
0.1605832032924383 1:0 2:596 
0.3396238348693765 1:0 2:922 
0.2854650219722676 1:0 2:1316 
0.4068375331794702 1:0 2:854 
0.07052345678456412 1:0 2:1188 
0.9832879804722384 1:0 2:6339 
0.6454618002575843 1:0 2:1534 
1 1:0 2:1601 
0.3598066074354322 1:0 2:1864 
0.602758468274371 1:0 2:476 
0.5295622072553685 1:0 2:1574 
0.2598631775410074 1:0 2:920 
0.0475922643116434 1:0 2:761 
0.1207700395828775 1:0 2:1319 
0.6501167559517387 1:0 2:7559 
1 1:0 2:1255 
0.6494564747432428 1:0 2:2150 
1 1:0 2:345 
1 1:0 2:2805 
0.6311536459269407 1:0 2:808 
1 1:0 2:260 
0.03640244160207787 1:0 2:1192 
0.9978601596936673 1:0 2:1192 
0.6500535924197852 1:0 2:26085 
0.156788149202342 1:0 2:905 
0.5251205846361464 1:0 2:832 
0.5595989435899752 1:0 2:2135 
1 1:0 2:547 
0.9949673579294706 1:0 2:1893 
0.5116222487287767 1:0 2:1642 
0.6500563788377327 1:1 2:26938 
0.6498780017339201 1:0 2:7254 
0.346687542747147 1:0 2:1318 
0.03219773326230174 1:0 2:1761 
0.9962226374703691 1:0 2:571 
0.7797927172575795 1:0 2:264 
0.3218157074816116 1:0 2:2340 
0.001822744444589214 1:0 2:898 
0.3699245203270458 1:1 2:1142 
0.5263408629347159 1:0 2:902 
0.5797171521308859 1:0 2:667 
0.2275656281630523 1:0 2:838 
0.4040624046724767 1:0 2:2661 
0.003012258481754888 1:0 2:957 
1 1:0 2:398 
0.6935914235166423 1:0 2:1486 
1 1:0 2:777 
0.6453150987426456 1:0 2:2383 
0.6497431836095813 1:0 2:9242 
0.4047659981353656 1:1 2:1066 
1 1:0 2:518 
0.9908019977138802 1:0 2:586 
0.7142098434629899 1:0 2:1672 
0.5236598466832956 1:0 2:267 
1 1:0 2:342 
0.3682693568153723 1:0 2:1111 
0.5193882504249119 1:0 2:239 
0.4789800867238844 1:0 2:269 
0.3794941135755259 1:0 2:1290 
0.5308978115793733 1:0 2:937 
0.6716543487943771 1:0 2:538 
0.9672718369059589 1:0 2:718 
1 1:0 2:798 
0.9963715672805383 1:0 2:970 
0.6439455304805195 1:0 2:1330 
1 1:0 2:1640 
0.6992391197612144 1:0 2:526 
0.389503080888597 1:0 2:643 
0.6499296785793806 1:0 2:2468 
1 1:0 2:1118 
0.4816979375172141 1:0 2:733 
0.486949834745333 1:0 2:1439 
0.0527526724610342 1:0 2:1119 
0.5889382990975358 1:0 2:1264 
0.6430109094590555 1:0 2:2414 
0.02866241118749289 1:0 2:594 
0.001193737009412008 1:0 2:1594 
0.7343596999260888 1:0 2:1442 
0.6458510338096087 1:0 2:3487 
0.582108042164177 1:0 2:737 
0.1198499716569207 1:0 2:1239 
1 1:0 2:521 
1 1:0 2:1902 
0.6496721608246827 1:0 2:2204 
1 1:0 2:1188 
0.5552582358052169 1:0 2:1327 
0.4800402702059088 1:0 2:1061 
0.009766897312778355 1:0 2:2243 
0.3382414311636109 1:0 2:1576 
0.4146841667421464 1:0 2:2712 
0.4810663701222396 1:0 2:1882 
0.4319849877778575 1:0 2:685 
0.6566479127623892 1:0 2:951 
0.4615913691013575 1:0 2:672 
1 1:0 2:714 
0.6501153460213275 1:0 2:3263 
0.9485951802558028 1:0 2:742 
0.4986025721264626 1:0 2:840 
0.6430267005944472 1:0 2:2227 
0.329661496567885 1:0 2:898 
0.9495515405157868 1:0 2:1018 
0.717575390840685 1:0 2:1418 
1 1:0 2:1415 
0.133379800004019 1:0 2:931 
0.002751347493710199 1:0 2:299 
0.9113814104284724 1:0 2:1138 
0.9460514863934535 1:0 2:1266 
0.6499039685257101 1:0 2:5701 
0.5496741061038337 1:0 2:213 
0.2480076957426426 1:0 2:895 
0.4688043109172416 1:0 2:924 
1 1:0 2:2703 
1 1:0 2:1761 
0.5972715758917103 1:0 2:2773 
0.1752077744348821 1:0 2:368 
0.2591852065953713 1:0 2:992 
0.2005199749602754 1:0 2:781 
0.6500859644238869 1:0 2:2746 
0.546218457234274 1:0 2:1462 
0.831184557797224 1:0 2:2041 
0.6428459720443714 1:0 2:4812 
0.7795202970059687 1:0 2:973 
0.6503194766827769 1:0 2:2169 
1 1:0 2:1106 
1 1:0 2:1619 
0.2217683663467911 1:0 2:849 
1 1:0 2:1292 
0.6568379459166789 1:0 2:2495 
0.2650934451889738 1:0 2:891 
0.6498053122013612 1:1 2:32799 
0.6429911247535063 1:0 2:3976 
0.4618383057375535 1:0 2:660 
0.05816009992445273 1:0 2:732 
1 1:1 2:1569 
1 1:0 2:1284 
1 1:0 2:611 
0.7507574262422531 1:0 2:1650 
0.2886429720874809 1:0 2:1279 
0.6502692872649786 1:0 2:3523 
0.5653034083446947 1:0 2:2504 
1 1:0 2:646 
0.6498212494930729 1:1 2:20031 
0.6230105788370951 1:0 2:967 
0.2663281638133183 1:0 2:263 
0.1461863179268842 1:0 2:246 
0.6499522583873233 1:0 2:3885 
0.6501508176337502 1:1 2:12461 
0.05313248743844154 1:0 2:705 
0.05859498427468793 1:0 2:299 
0.5054722192901603 1:0 2:735 
0.9985896868525175 1:0 2:847 
0.6433380023892272 1:0 2:1164 
0.9104129587266401 1:0 2:445 
0.2678355315706671 1:0 2:1079 
1 1:1 2:2818 
0.7445609577509761 1:0 2:750 
0.6458756303873654 1:0 2:4229 
0.5332964295064003 1:0 2:2016 
0.3620891084942827 1:0 2:1230 
0.588996584058563 1:0 2:1473 
1 1:0 2:432 
0.6463187626516671 1:0 2:1431 
0.4338764298235067 1:0 2:265 
0.6504861257429715 1:0 2:6647 
0.9714110376137797 1:0 2:1601 
0.6560518188937714 1:0 2:6304 
0.4411009385732227 1:0 2:1580 
0.3531665644886157 1:0 2:1268 
0.04114788790451135 1:0 2:1504 
0.3494499600414572 1:0 2:1073 
0.8291864708431154 1:0 2:1029 
0.4348747518350991 1:0 2:365 
0.1710034119297994 1:0 2:1226 
0.9739658140037134 1:0 2:931 
0.6499372562598253 1:0 2:4298 
0.5995201234534352 1:0 2:1277 
1 1:0 2:497 
0.6497338077977588 1:1 2:34636 
0.649489557901183 1:0 2:1435 
0.6501878210001653 1:0 2:5404 
0.3906292368276076 1:0 2:200 
0.5964600311757213 1:0 2:1594 
0.1709888395011519 1:0 2:695 
1 1:0 2:2064 
0.9816928780038842 1:0 2:1640 
1 1:0 2:1367 
0.6501825532174457 1:0 2:22066 
0.6501795115016035 1:0 2:2302 
0.6497323445048655 1:0 2:6780 
0.6501520700429942 1:1 2:2474 
0.5790926457039096 1:0 2:205 
0.9991316373299914 1:0 2:638 
0.02221360574557315 1:0 2:241 
1 1:0 2:859 
0.9586766255209973 1:0 2:772 
0.6564767904828248 1:0 2:4838 
0.5216852025282146 1:0 2:203 
0.343518062312361 1:0 2:767 
0.420562467936321 1:0 2:722 
0.3553817955433832 1:0 2:1325 
0.6503364668439091 1:0 2:2518 
0.2376744210957759 1:0 2:768 
0.7855660563904994 1:0 2:1950 
1 1:0 2:542 
1 1:0 2:141 
0.538985168195186 1:0 2:2008 
0.2330941120001377 1:0 2:1314 
1 1:0 2:981 
1 1:0 2:251 
0.3781599106751132 1:0 2:850 
0.004842511240120607 1:0 2:871 
0.6504805973287744 1:0 2:3710 
0.1852634390009307 1:0 2:1935 
1 1:0 2:299 
0.2679305913070174 1:0 2:1611 
0.405620113828292 1:0 2:1504 
0.6500393561155734 1:1 2:34284 
1 1:0 2:763 
0.9972117429224094 1:0 2:471 
0.9572177840529305 1:0 2:1122 
0.5630097404253153 1:0 2:2243 
0.6501764071003353 1:0 2:4310 
0.1371291248164475 1:0 2:884 
1 1:0 2:1502 
0.5823440973241091 1:0 2:1093 
0.4104275753041907 1:0 2:2524 
0.4001165905488833 1:0 2:1465 
0.650041484132552 1:0 2:41545 
0.5409964955125 1:0 2:1389 
0.4459776720049521 1:0 2:1798 
0.4823320005242291 1:0 2:852 
1 1:0 2:845 
1 1:0 2:1158 
1 1:0 2:1139 
0.5710692936222275 1:0 2:593 
1 1:0 2:548 
0.567853326982948 1:0 2:1725 
0.4536480790990008 1:0 2:999 
0.588501440318548 1:0 2:232 
0.9992550669965201 1:0 2:2078 
0.700017607146608 1:0 2:424 
0.579752552323852 1:0 2:1063 
0.02423966831733271 1:0 2:1126 
1 1:0 2:835 
0.4520471905916429 1:0 2:1113 
0.9561487773999539 1:0 2:915 
0.07351392174142629 1:0 2:1220 
0.2556021072271083 1:0 2:892 
0.5753710926039253 1:0 2:1214 
0.2737322928314507 1:0 2:855 
0.6500397902704453 1:1 2:32210 
1 1:0 2:1340 
0.4591500452476795 1:0 2:177 
1 1:0 2:541 
0.4950919995035961 1:0 2:2063 
0.2620847377865985 1:0 2:1861 
0.9566981655039283 1:0 2:1167 
0.4127485839669177 1:0 2:1416 
0.3468368095292141 1:0 2:367 
0.1951093138492992 1:0 2:1066 
1 1:0 2:1228 
0.4010787760362077 1:0 2:1509 
1 1:0 2:1114 
0.4116815846017563 1:0 2:3227 
1 1:0 2:625 
0.9989396208881627 1:0 2:556 
0.4308505800518155 1:0 2:241 
0.4130039272791846 1:0 2:1570 
0.4056575729553343 1:0 2:940 
0.4003684559401346 1:0 2:1660 
0.2967230700969156 1:0 2:906 
0.5738907517531646 1:0 2:1680 
0.4603317477374823 1:0 2:645 
0.4042732050212162 1:0 2:2359 
0.3550181291516212 1:0 2:648 
0.09471058115247227 1:0 2:318 
0.1627429937816897 1:0 2:1568 
0.4407368442303501 1:0 2:904 
0.6498501640760712 1:0 2:3337 
0.3664251658751484 1:0 2:2339 
0.1537748342850371 1:0 2:1464 
1 1:0 2:279 
0.6503441716545282 1:0 2:3199 
0.5244456073639512 1:0 2:1106 
0.6497782783801695 1:0 2:9247 
1 1:0 2:539 
0.9199526692232229 1:0 2:560 
0.2142839052638657 1:0 2:328 
0.08124463910534364 1:0 2:1222 
1 1:0 2:2289 
0.4943357133104958 1:0 2:1351 
0.3936719931023293 1:0 2:2034 
0.9325696543823692 1:0 2:327 
0.1419004873905789 1:0 2:366 
0.4274941616068415 1:1 2:769 
0.6500354630419795 1:0 2:11070 
0.4355136304085709 1:0 2:1794 
0.6500805700915382 1:0 2:21223 
0.5732793777655815 1:0 2:1972 
0.9826509637131204 1:0 2:1703 
0.5550343689819013 1:0 2:327 
-1 1:1 2:1826 
-1 1:1 2:4982 
-1 1:1 2:2968 
-1 1:0 2:6187 
-1 1:1 2:2512 
-1 1:0 2:10907 
-1 1:1 2:14608 
-1 1:0 2:467 
-1 1:1 2:8338 
-1 1:0 2:217 
-0.1024294862262351 1:0 2:1648 
-1 1:0 2:406 
-0.518162041149047 1:0 2:413 
-0.8845864767353151 1:0 2:493 
-1 1:1 2:5824 
-1 1:1 2:1656 
-0.5719848478496801 1:0 2:493 
-1 1:1 2:2039 
-1 1:1 2:8045 
-1 1:0 2:1640 
-1 1:0 2:3696 
-1 1:0 2:972 
-1 1:0 2:432 
-1 1:0 2:1952 
-1 1:0 2:307 
-1 1:0 2:373 
-1 1:0 2:141 
-1 1:1 2:13148 
-1 1:0 2:1134 
-1 1:1 2:30292 
-1 1:0 2:1833 
-1 1:0 2:2975 
-1 1:0 2:1658 
-1 1:0 2:16757 
-0.8766502951208772 1:0 2:130 
-1 1:1 2:13365 
-1 1:0 2:21074 
-1 1:0 2:798 
-1 1:1 2:9506 
-0.00052982315092856 1:0 2:545 
-1 1:1 2:6661 
-1 1:1 2:1295 
-1 1:0 2:466 
-1 1:0 2:877 
-1 1:1 2:1203 
-1 1:1 2:576 
-1 1:0 2:1174 
-1 1:1 2:13000 
-1 1:1 2:1687 
-1 1:0 2:714 
-1 1:1 2:3195 
-1 1:0 2:16797 
-1 1:1 2:7100 
-1 1:1 2:42064 
-1 1:1 2:9155 
-1 1:1 2:8162 
-1 1:0 2:24079 
-1 1:1 2:6643 
-0.5525309730102778 1:1 2:1872 
-0.8405510156513305 1:1 2:2070 
-1 1:0 2:2703 
-1 1:0 2:741 
-1 1:0 2:348 
-1 1:0 2:1088 
-1 1:1 2:7107 
-1 1:0 2:7851 
-1 1:1 2:974 
-1 1:0 2:4193 
-1 1:1 2:6356 
-1 1:1 2:4162 
-1 1:0 2:382 
-0.2138336372995198 1:0 2:544 
-1 1:0 2:802 
-1 1:1 2:2160 
-1 1:1 2:2876 
-1 1:0 2:521 
-1 1:1 2:6829 
-0.9148320480367824 1:1 2:1562 
-1 1:0 2:246 
-1 1:1 2:4156 
-1 1:0 2:1056 
-0.9867543622847084 1:0 2:7064 
-1 1:0 2:11197 
-1 1:1 2:1666 
-1 1:1 2:10050 
-1 1:0 2:27352 
-1 1:0 2:777 
-1 1:0 2:2184 
-1 1:0 2:835 
-1 1:1 2:1756 
-1 1:1 2:1285 
-1 1:1 2:8037 
-1 1:0 2:758 
-1 1:1 2:7116 
-1 1:1 2:6452 
-1 1:0 2:4405 
-1 1:0 2:689 
-0.4958159418527195 1:1 2:2645 
-1 1:1 2:2944 
-0.009087200011437953 1:0 2:93 
-1 1:1 2:447 
-1 1:0 2:1135 
-1 1:0 2:538 
-0.8360116228011207 1:1 2:6300 
-1 1:1 2:2083 
-0.9870016251364836 1:1 2:7065 
-1 1:1 2:3916 
-1 1:0 2:759 
-1 1:0 2:2030 
-1 1:1 2:3124 
-0.9279881565692475 1:1 2:1878 
-1 1:1 2:2767 
-1 1:0 2:16695 
-1 1:1 2:6756 
-1 1:1 2:8846 
-0.746588215790256 1:1 2:1894 
-1 1:0 2:221 
-1 1:0 2:858 
-1 1:0 2:987 
-1 1:0 2:5765 
-1 1:1 2:8659 
-1 1:1 2:12808 
-1 1:1 2:4637 
-1 1:0 2:943 
-1 1:1 2:7293 
-1 1:1 2:5129 
-1 1:1 2:4841 
-1 1:0 2:1480 
-1 1:1 2:2514 
-1 1:0 2:128 
-1 1:1 2:6345 
-1 1:0 2:2827 
-1 1:1 2:1811 
-0.9591992211582159 1:1 2:2075 
-1 1:0 2:9891 
-1 1:0 2:16452 
-1 1:1 2:7020 
-1 1:1 2:2028 
-1 1:1 2:8898 
-1 1:0 2:628 
-1 1:1 2:11684 
-1 1:0 2:557 
-0.4855877757284703 1:0 2:1785 
-1 1:0 2:6966 
-1 1:1 2:2784 
-1 1:1 2:2254 
-1 1:0 2:1626 
-1 1:0 2:1138 
-1 1:0 2:4373 
-1 1:1 2:2045 
-1 1:0 2:390 
-1 1:0 2:971 
-1 1:0 2:225 
-1 1:0 2:419 
-1 1:1 2:6026 
-1 1:1 2:8961 
-1 1:0 2:2596 
-1 1:0 2:1735 
-0.4128937019862512 1:1 2:4257 
-1 1:0 2:4163 
-1 1:1 2:11537 
-0.4327743377022685 1:0 2:15802 
-0.9305726924877039 1:1 2:2651 
-1 1:1 2:3115 
-1 1:1 2:2288 
-1 1:1 2:1357 
-1 1:0 2:1082 
-1 1:0 2:827 
-1 1:0 2:827 
-1 1:1 2:2825 
-0.8474037591506098 1:1 2:6301 
-1 1:0 2:3672 
-1 1:0 2:1083 
-1 1:1 2:1941 
-1 1:1 2:2042 
-1 1:1 2:19743 
-1 1:1 2:10427 
-0.4689157771149994 1:0 2:2636 
-1 1:0 2:3530 
-0.5626007522209847 1:1 2:3165 
-0.8324575447599754 1:0 2:94 
-1 1:0 2:1146 
-1 1:0 2:1178 
-1 1:1 2:3067 
-1 1:1 2:6220 
-1 1:1 2:7426 
-1 1:0 2:5056 
-1 1:1 2:2395 
-1 1:0 2:1476 
-1 1:0 2:251 
-1 1:1 2:2965 
-1 1:0 2:3624 
-1 1:1 2:4991 
-1 1:0 2:256 
-1 1:0 2:160 
-1 1:0 2:664 
-1 1:1 2:5857 
-1 1:0 2:2864 
-1 1:1 2:2075 
-1 1:1 2:3209 
-1 1:1 2:4767 
-1 1:0 2:485 
-1 1:0 2:1588 
-1 1:0 2:3714 
-1 1:1 2:1898 
-1 1:0 2:24155 
-1 1:1 2:2403 
-1 1:0 2:234 
-1 1:0 2:1305 
-1 1:0 2:669 
-1 1:1 2:7749 
-0.8403779247587544 1:0 2:3538 
-1 1:1 2:3078 
-1 1:1 2:3444 
-1 1:0 2:97 
-1 1:1 2:7074 
-1 1:1 2:2441 
-0.9989855900685479 1:0 2:1243 
-1 1:1 2:1600 
-1 1:1 2:3923 
-1 1:0 2:10187 
-1 1:1 2:2669 
-1 1:1 2:7025 
-1 1:0 2:1167 
-1 1:0 2:3984 
-1 1:0 2:2014 
-1 1:1 2:9615 
-0.9867575547342973 1:1 2:3088 
-1 1:1 2:2054 
-1 1:0 2:610 
-0.6051660794541733 1:1 2:2695 
-1 1:0 2:459 
-1 1:0 2:1149 
-1 1:1 2:6524 
-0.9882045937467276 1:0 2:2402 
-0.9869976882382347 1:0 2:3089 
-1 1:0 2:2777 
-1 1:0 2:514 
-1 1:0 2:497 
-1 1:1 2:5581 
-1 1:1 2:11970 
-0.5710038060472583 1:0 2:2604 
-0.9522208584767391 1:1 2:3351 
-1 1:0 2:814 
-1 1:0 2:470 
-1 1:1 2:6309 
-1 1:1 2:12601 
-0.8650400899905195 1:0 2:1785 
-1 1:1 2:13885 
-1 1:1 2:14972 
-1 1:1 2:697 
-0.9001444602700519 1:0 2:8337 
-1 1:1 2:13156 
-1 1:1 2:17014 
-1 1:0 2:496 
-1 1:1 2:9557 
-1 1:1 2:2372 
-1 1:0 2:1218 
-1 1:1 2:7532 
-1 1:0 2:3677 
-0.8501297727607868 1:1 2:3165 
-1 1:0 2:404 
-1 1:1 2:3014 
-1 1:0 2:764 
-1 1:1 2:1749 
-1 1:1 2:1961 
-1 1:0 2:327 
-0.3391056539581425 1:0 2:482 
-1 1:1 2:3484 
-1 1:0 2:230 
-0.5473146937471791 1:1 2:4069 
-1 1:1 2:1654 
-0.8519032152488636 1:1 2:4069 
-1 1:1 2:4034 
-1 1:0 2:5573 
-1 1:0 2:763 
-1 1:0 2:247 
-1 1:1 2:3905 
-1 1:1 2:7324 
-1 1:1 2:1761 
-1 1:0 2:1153 
-1 1:1 2:6994 
-1 1:1 2:1606 
-1 1:1 2:3909 
-1 1:0 2:308 
-1 1:1 2:2557 
-1 1:1 2:2164 
-1 1:1 2:2249 
-1 1:0 2:971 
-1 1:0 2:208 
-1 1:1 2:6181 
-1 1:0 2:1999 
-0.7952215709983896 1:1 2:1879 
-1 1:1 2:6562 
-1 1:0 2:955 
-1 1:1 2:11057 
-1 1:1 2:8196 
-1 1:0 2:794 
-0.3445324922001515 1:1 2:3627 
-0.3498395406666246 1:0 2:4328 
-1 1:0 2:171 
-1 1:1 2:5078 
-1 1:1 2:1228 
-0.2820337794693589 1:1 2:2065 
-1 1:0 2:2672 
-1 1:0 2:5363 
-1 1:1 2:8058 
-1 1:1 2:2212 
-1 1:0 2:523 
-1 1:0 2:522 
-1 1:1 2:8723 
-1 1:0 2:1488 
-1 1:1 2:6612 
-1 1:0 2:3820 
-1 1:0 2:334 
-1 1:1 2:5729 
-1 1:1 2:5521 
-1 1:1 2:1473 
-1 1:1 2:2064 
-1 1:0 2:18641 
-1 1:1 2:1619 
-1 1:0 2:775 
-0.6235162375101422 1:0 2:3247 
-1 1:1 2:6399 
-1 1:0 2:9902 
-1 1:0 2:3128 
-1 1:1 2:4401 
-1 1:1 2:9136 
-1 1:1 2:9044 
-1 1:0 2:943 
-1 1:1 2:2050 
-1 1:1 2:3134 
-1 1:0 2:718 
-1 1:0 2:1170 
-1 1:1 2:2332 
-1 1:0 2:522 
-0.9170496287728954 1:0 2:15802 
-1 1:1 2:6176 
-0.8405873084289366 1:1 2:5624 
-1 1:0 2:5044 
-0.4332320599949652 1:1 2:9060 
-0.4575004863263795 1:1 2:2826 
-1 1:0 2:3967 
-1 1:1 2:454 
-1 1:0 2:9789 
-1 1:0 2:245 
-1 1:1 2:1689 
-1 1:1 2:1193 
-1 1:0 2:610 
-1 1:1 2:1937 
-0.9868318178851735 1:1 2:3246 
-1 1:0 2:1067 
-1 1:0 2:567 
-1 1:1 2:663 
-1 1:0 2:4105 
-1 1:0 2:128102 
-1 1:0 2:752 
-0.8319288667237114 1:1 2:1194 
-1 1:0 2:517 
-1 1:0 2:859 
-1 1:1 2:3348 
-1 1:0 2:584 
-1 1:1 2:7030 
-0.9490315831203807 1:1 2:1647 
-1 1:0 2:2806 
-1 1:1 2:2060 
-1 1:0 2:1064 
-1 1:0 2:863 
-1 1:0 2:1444 
-1 1:1 2:2059 
-0.3497299122060279 1:1 2:2656 
-1 1:1 2:3235 
-1 1:1 2:9287 
-1 1:1 2:10059 
-1 1:0 2:149 
-1 1:0 2:2087 
-0.9165956546218591 1:1 2:9060 
-1 1:1 2:3206 
-1 1:0 2:6408 
-1 1:0 2:1089 
-0.2686429697957227 1:0 2:4154 
-1 1:0 2:937 
-1 1:0 2:122 
-0.8405369015647343 1:0 2:4083 
-1 1:0 2:1411 
-1 1:1 2:5665 
-1 1:0 2:1105 
-1 1:0 2:980 
-1 1:0 2:129 
-1 1:0 2:638 
-1 1:0 2:2190 
-1 1:0 2:926 
-1 1:0 2:5720 
-0.2153253502060553 1:1 2:1960 
-1 1:1 2:6433 
-1 1:0 2:469 
-1 1:0 2:1120 
-1 1:1 2:2094 
-1 1:1 2:3046 
-0.8405621593120932 1:1 2:6602 
-1 1:1 2:1227 
-1 1:0 2:551 
-1 1:0 2:1178 
-1 1:1 2:2462 
-1 1:1 2:2775 
-1 1:1 2:1387 
-1 1:1 2:13128 
-1 1:1 2:5188 
-1 1:0 2:475 
-0.2146042989398924 1:1 2:3148 
-1 1:1 2:11851 
-1 1:0 2:331 
-1 1:1 2:1340 
-1 1:1 2:6337 
-1 1:0 2:5713 
-1 1:1 2:7300 
-1 1:0 2:1106 
-1 1:1 2:3242 
-0.8405424302917843 1:1 2:9494 
-1 1:1 2:2839 
-1 1:1 2:6614 
-0.6418434248188953 1:0 2:640 
-1 1:0 2:260 
-1 1:1 2:3392 
-0.6240812654630856 1:0 2:1041 
-1 1:0 2:422 
-1 1:0 2:7087 
-1 1:1 2:5228 
-1 1:1 2:9594 
-1 1:0 2:557 
-0.3503895100412142 1:1 2:4737 
-1 1:1 2:4987 
-1 1:0 2:864 
-1 1:0 2:1089 
-1 1:0 2:461 
-1 1:1 2:1022 
-1 1:1 2:2692 
-1 1:0 2:3027 
-1 1:1 2:11957 
-1 1:1 2:4950 
-1 1:0 2:71811 
-0.8407631583144395 1:0 2:110 
-1 1:0 2:5597 
-1 1:0 2:1036 
-1 1:0 2:937 
-1 1:1 2:8330 
-1 1:1 2:11767 
-1 1:0 2:916 
-1 1:1 2:1982 
-1 1:0 2:1159 
-1 1:0 2:505 
-1 1:1 2:6017 
-1 1:0 2:407 
-1 1:0 2:2688 
-1 1:1 2:9482 
-0.986761629608266 1:1 2:6943 
-1 1:1 2:226 
-1 1:0 2:565 
-1 1:1 2:8712 
-1 1:1 2:5863 
-1 1:0 2:512 
-1 1:0 2:639 
-1 1:0 2:6405 
-1 1:1 2:2087 
-1 1:0 2:869 
-1 1:0 2:935 
-1 1:0 2:2576 
-1 1:1 2:1122 
-0.9870108330877663 1:1 2:3248 
-1 1:0 2:539 
-1 1:0 2:947 
-1 1:1 2:42177 
-1 1:1 2:12325 
-1 1:0 2:616 
-1 1:1 2:764 
-1 1:0 2:348 
-1 1:0 2:1943 
-1 1:1 2:4030 
-1 1:0 2:2584 
-1 1:1 2:6134 
-1 1:0 2:1108 
-1 1:0 2:2866 
-0.3308611676617517 1:1 2:3538 
-1 1:0 2:1003 
-1 1:1 2:6443 
-1 1:1 2:2004 
-1 1:0 2:546 
-1 1:0 2:1310 
-1 1:1 2:3148 
-1 1:1 2:1428 
-0.8931834907735898 1:0 2:2604 
-1 1:1 2:2424 
-1 1:1 2:5298 
-1 1:1 2:5312 
-1 1:1 2:1175 
-1 1:0 2:135 
-1 1:0 2:1433 
-1 1:0 2:671 
-1 1:0 2:1501 
-1 1:1 2:8332 
-1 1:0 2:541 
-1 1:0 2:754 
-1 1:0 2:544 
-1 1:0 2:752 
-1 1:1 2:5271 
-1 1:0 2:1266 
-1 1:1 2:3212 
-0.9866741730644947 1:1 2:3421 
-1 1:0 2:2753 
-0.8541469598310794 1:1 2:2645 
-1 1:1 2:6138 
-1 1:1 2:2760 
-1 1:0 2:1033 
-1 1:0 2:739 
-1 1:0 2:298 
-1 1:1 2:3140 
-1 1:1 2:9268 
-1 1:1 2:8050 
-1 1:1 2:3150 
-0.6392770832272028 1:0 2:545 
-1 1:0 2:586 
-1 1:0 2:3174 
-1 1:1 2:1541 
-1 1:1 2:4675 
-1 1:1 2:2137 
-1 1:1 2:6840 
-1 1:0 2:1254 
-1 1:0 2:11324 
-1 1:0 2:1523 
-1 1:0 2:1807 
-1 1:0 2:73 
-0.8399817898554651 1:1 2:4894 
-1 1:0 2:2802 
-0.8949922675300187 1:0 2:1638 
-1 1:0 2:278 
-1 1:1 2:9051 
-0.8806464018215937 1:0 2:1160 
-1 1:1 2:3269 
-1 1:1 2:1853 
-1 1:0 2:5234 
-1 1:0 2:627 
-1 1:1 2:3065 
-1 1:0 2:1018 
-1 1:1 2:3370 
-1 1:1 2:5983 
-1 1:0 2:1699 
-1 1:1 2:4748 
-1 1:0 2:623 
-1 1:1 2:6912 
-1 1:0 2:487 
-1 1:0 2:773 
-1 1:1 2:10448 
-0.7903225301837513 1:1 2:2652 
-1 1:0 2:456 
-1 1:0 2:486 
-1 1:0 2:1763 
-1 1:1 2:1904 
-1 1:0 2:606 
-1 1:0 2:559 
-1 1:0 2:127 
-0.6914139294715483 1:0 2:489 
-0.9869889287790024 1:0 2:6942 
-1 1:1 2:1340 
-1 1:1 2:3736 
-1 1:1 2:1203 
-1 1:1 2:2380 
-0.6890768086568991 1:0 2:1607 
-0.2261890977757533 1:0 2:2183 
-1 1:0 2:2023 
-1 1:1 2:5552 
-1 1:1 2:5989 
-1 1:0 2:522 
-1 1:1 2:6281 
-1 1:1 2:12623 
-1 1:1 2:8055 
-1 1:1 2:6585 
-0.8397864863117838 1:1 2:624 
-1 1:1 2:4196 
-1 1:0 2:90 
-0.3837241889481007 1:0 2:615 
-1 1:0 2:3770 
-1 1:0 2:1784 
-1 1:0 2:104 
-1 1:1 2:2591 
-1 1:0 2:2344 
-0.8400068108090709 1:0 2:5624 
-1 1:1 2:5906 
-1 1:0 2:489 
-0.9229216479722502 1:0 2:1032 
-1 1:0 2:1780 
-0.2148081546882044 1:1 2:4323 
-1 1:0 2:1344 
-1 1:0 2:7994 
-1 1:1 2:6849 
-1 1:1 2:5204 
-1 1:1 2:13582 
-1 1:0 2:7004 
-0.9715369101661518 1:0 2:615 
-0.6535971003921053 1:0 2:455 
-1 1:0 2:1608 
-1 1:1 2:8335 
-1 1:0 2:14741 
-1 1:1 2:37362 
-1 1:0 2:1067 
-1 1:0 2:398 
-1 1:0 2:779 
-1 1:0 2:3566 
-1 1:0 2:310 
-0.8326288899769624 1:0 2:118 
-0.9990782142806084 1:0 2:4154 
-1 1:0 2:7996 
-1 1:1 2:3815 
-1 1:0 2:1902 
-1 1:1 2:4887 
-1 1:1 2:808 
-1 1:1 2:3343 
-1 1:1 2:10415 
-1 1:1 2:5660 
-0.9872565972513783 1:0 2:3420 
-0.8177507499749358 1:0 2:413 
-1 1:0 2:1284 
-1 1:1 2:8276 
-1 1:0 2:1739 
-1 1:1 2:9573 
-1 1:0 2:2563 
-1 1:0 2:583 
-1 1:0 2:526 
-1 1:1 2:658 
-1 1:0 2:342 
-1 1:0 2:602 
-1 1:0 2:429 
-1 1:1 2:4513 
-1 1:1 2:1702 
-1 1:0 2:1178 
-0.8405485228894483 1:1 2:3306 
-1 1:1 2:8111 
-1 1:1 2:6340 
-0.8400391705113393 1:1 2:9493 
-0.8729416791467656 1:1 2:1872 
-1 1:1 2:20301 
-1 1:0 2:579 
-1 1:1 2:2173 
-1 1:0 2:1869 
-0.9789434553167972 1:0 2:624 
-0.8399495179305486 1:1 2:3786 
-1 1:0 2:1420 
-0.7519064217748193 1:0 2:136 
-1 1:1 2:4916 
-1 1:1 2:6430 
-0.9793774957602042 1:0 2:255 
-1 1:0 2:1999 
-1 1:1 2:5535 
-1 1:1 2:9479 
-1 1:1 2:3961 
-1 1:1 2:4129 
-1 1:1 2:700 
-1 1:1 2:18183 
-1 1:0 2:362 
-0.9660964299456934 1:1 2:2695 
-1 1:0 2:976 
-1 1:0 2:312 
-1 1:1 2:5575 
-1 1:0 2:1183 
-0.2150794289590984 1:0 2:3768 
-1 1:0 2:567 
-1 1:1 2:9232 
-1 1:0 2:637 
-1 1:0 2:846 
-1 1:0 2:571 
-0.45841042868557 1:0 2:1031 
-1 1:1 2:3116 
-1 1:1 2:8568 
-1 1:0 2:1375 
-0.8697315041335675 1:1 2:2065 
-1 1:0 2:476 
-1 1:0 2:1649 
-1 1:1 2:3621 
-1 1:0 2:1114 
-1 1:0 2:346 
-1 1:1 2:3118 
-1 1:1 2:1118 
-0.915171074277772 1:0 2:1031 
-1 1:1 2:4321 
-1 1:0 2:479 
-1 1:1 2:1639 
-1 1:1 2:13846 
-1 1:0 2:943 
-1 1:0 2:1721 
-1 1:1 2:3749 
-1 1:1 2:2809 
-0.4907528460783623 1:0 2:4102 
-1 1:0 2:1427 
-1 1:0 2:2780 
-1 1:1 2:1292 
-1 1:1 2:2818 
-1 1:1 2:8822 
-1 1:1 2:2492 
-1 1:1 2:7010 
-1 1:1 2:9181 
-1 1:0 2:515 
-1 1:0 2:2010 
-1 1:1 2:2585 
-1 1:0 2:4213 
-1 1:0 2:2738 
-0.9994308912833743 1:0 2:3768 
-1 1:0 2:517 
-1 1:0 2:1602 
-1 1:0 2:779 
-1 1:1 2:3478 
-1 1:1 2:14116 
-1 1:1 2:4826 
-1 1:1 2:1959 
-1 1:1 2:2697 
-1 1:0 2:257 
-1 1:0 2:625 
-1 1:0 2:2078 
-1 1:1 2:3921 
-1 1:0 2:5360 
-1 1:1 2:7154 
-1 1:1 2:1930 
-1 1:1 2:445 
-1 1:1 2:3830 
-1 1:1 2:17931 
-1 1:1 2:43445 
-1 1:0 2:553 
-1 1:0 2:5468 
-1 1:0 2:2580 
-1 1:1 2:8104 
-1 1:1 2:9536 
-1 1:0 2:1367 
-0.8400238727213608 1:0 2:2070 
-1 1:0 2:640 
-1 1:0 2:459 
-1 1:0 2:454 
-1 1:0 2:418 
-1 1:1 2:4965 
-1 1:1 2:1303 
-1 1:1 2:3662 
-1 1:0 2:4584 
-1 1:1 2:13992 
-1 1:0 2:3323 
-1 1:1 2:6926 
-1 1:0 2:1187 
-0.01575088647196429 1:0 2:2183 
-1 1:1 2:6683 
-1 1:1 2:19192 
-1 1:1 2:1997 
-1 1:1 2:3683 
-1 1:1 2:11554 
-1 1:1 2:6930 
-1 1:1 2:3964 
-0.4832499487676761 1:0 2:492 
-1 1:1 2:3792 
-1 1:1 2:7351 
-1 1:0 2:2274 
-1 1:0 2:2292 
-1 1:0 2:503 
-1 1:1 2:1866 
-1 1:0 2:18161 
-0.9909818517347937 1:0 2:4102 
-1 1:0 2:74194 
-1 1:0 2:5755 
-1 1:0 2:810 
-1 1:1 2:7790 
-0.8981822644514909 1:0 2:2971 
-1 1:0 2:16250 
-1 1:1 2:3385 
-0.9992040871121266 1:0 2:2636 
-1 1:1 2:3679 
-1 1:1 2:7546 
-1 1:0 2:640 
-0.8400400768134539 1:1 2:110 
-1 1:0 2:1150 
-1 1:1 2:42041 
-0.8406506885887302 1:0 2:3786 
-1 1:0 2:1210 
-1 1:0 2:1648 
-1 1:0 2:491 
-1 1:0 2:1591 
-1 1:1 2:1670 
-1 1:0 2:547 
-1 1:1 2:7321 
-0.3753706048891055 1:1 2:2331 
-1 1:0 2:539 
-1 1:1 2:1637 
-1 1:0 2:1140 
-1 1:1 2:7207 
-1 1:0 2:224 
-1 1:1 2:1569 
-1 1:0 2:1116 
-1 1:1 2:3345 
-1 1:0 2:1146 
-1 1:1 2:6887 
-1 1:0 2:1362 
-1 1:1 2:1661 
-1 1:1 2:7007 
-1 1:0 2:1711 
-1 1:1 2:4449 
-1 1:1 2:4569 
-1 1:0 2:1054 
-1 1:1 2:3095 
-1 1:0 2:2125 
-1 1:0 2:1741 
-1 1:0 2:6871 
-1 1:0 2:3456 
-1 1:1 2:8530 
-1 1:0 2:580 
-1 1:0 2:181 
-1 1:1 2:7372 
-1 1:1 2:21071 
-1 1:0 2:3334 
-1 1:0 2:18880 
-1 1:0 2:540 
-1 1:1 2:8411 
-1 1:0 2:1317 
-1 1:1 2:317 
-0.8396715111042505 1:1 2:3537 
-1 1:1 2:3658 
-1 1:0 2:1904 
-1 1:0 2:4339 
-1 1:0 2:1980 
-1 1:0 2:415 
-1 1:0 2:887 
-1 1:0 2:563 
-1 1:1 2:12893 
-1 1:1 2:2656 
-0.8262649064377302 1:1 2:2875 
-1 1:0 2:982 
-1 1:1 2:1482 
-1 1:0 2:524 
-0.8406041968519665 1:1 2:4895 
-1 1:1 2:264 
-1 1:0 2:541 
-1 1:1 2:1411 
-1 1:1 2:953 
-0.8400380544238796 1:1 2:3307 
-1 1:0 2:640 
-1 1:0 2:755 
-1 1:1 2:2639 
-1 1:1 2:4979 
-1 1:1 2:2891 
-1 1:1 2:1418 
-1 1:0 2:1896 
-1 1:0 2:292 
-1 1:0 2:375 
-0.7341192231436555 1:0 2:2970 
-1 1:0 2:2140 
-1 1:1 2:20678 
-1 1:1 2:8883 
-1 1:1 2:11297 
-1 1:0 2:719 
-1 1:0 2:1602 
-1 1:0 2:784 
-1 1:1 2:12168 
-1 1:0 2:820 
-0.248846369483705 1:0 2:495 
-1 1:1 2:27781 
-1 1:1 2:2178 
-1 1:1 2:7040 
-1 1:0 2:482 
-1 1:0 2:501 
-1 1:1 2:1614 
-1 1:1 2:1692 
-1 1:1 2:5493 
-1 1:1 2:9445 
-1 1:1 2:1358 
-1 1:1 2:680 
-1 1:1 2:2625 
-1 1:0 2:466 
-1 1:1 2:3075 
-1 1:0 2:15411 
-1 1:0 2:635 
-1 1:1 2:4257 
-1 1:0 2:841 
-1 1:1 2:8560 
-1 1:0 2:5656 
-1 1:1 2:9015 
-1 1:1 2:1858 
-1 1:0 2:4328 
-1 1:0 2:1367 
-1 1:0 2:2162 
-1 1:1 2:7166 
-1 1:1 2:42449 
-0.6374241847152768 1:1 2:3350 
-1 1:1 2:28234 
-1 1:0 2:535 
-1 1:0 2:1038 
-1 1:0 2:1415 
-0.9607648724313383 1:0 2:1041 
-1 1:1 2:846 
-1 1:0 2:1238 
-1 1:1 2:9983 
-1 1:0 2:324 
-1 1:1 2:5152 
-1 1:1 2:12514 
-0.9994603848219952 1:1 2:4737 
-1 1:1 2:10134 
-1 1:0 2:541 
-1 1:0 2:8 
-1 1:0 2:646 
-1 1:0 2:844 
-1 1:1 2:548 
-0.9414093344969406 1:1 2:2010 
-1 1:0 2:2330 
-0.8409270260189605 1:1 2:2183 
-1 1:0 2:466 
-0.798536815942589 1:1 2:1561 
-1 1:1 2:2085 
-0.7102989822038901 1:0 2:494 
-1 1:0 2:773 
-1 1:1 2:1746 
-1 1:0 2:1374 
-1 1:0 2:930 
-0.3498488268394702 1:1 2:16869 
-1 1:0 2:1304 
-1 1:0 2:1243 
-1 1:0 2:477 
-1 1:1 2:10245 
-1 1:1 2:35160 
-1 1:1 2:6844 
-1 1:1 2:16869 
-1 1:0 2:571 
-1 1:0 2:8543 
-1 1:1 2:1780 
-1 1:1 2:3925 
-1 1:0 2:140 
-0.8526215307068679 1:0 2:117 
-1 1:0 2:500 
-0.9985704978152368 1:1 2:3627 
-1 1:1 2:5116 
-1 1:1 2:1894 
-0.8400252510087797 1:0 2:6602 
-1 1:1 2:7096 
-1 1:0 2:1194 
-1 1:0 2:10190 
-1 1:0 2:517 
-1 1:1 2:1630 
-1 1:1 2:4177 
-1 1:1 2:1579 
-1 1:0 2:1034 
-1 1:0 2:5378 
-1 1:0 2:233 
-0.6936273099269425 1:0 2:1481 
-0.8405369015647135 1:0 2:4082 
-1 1:0 2:373 
-0.8243798157913247 1:0 2:93 
-1 1:0 2:1333 
-1 1:0 2:858 
-1 1:0 2:1841 
-1 1:1 2:4323 
-1 1:1 2:2709 
-1 1:0 2:173 
-1 1:0 2:13436 
-1 1:0 2:2594 
-1 1:0 2:5472 
-1 1:0 2:1037 
-1 1:1 2:3257 
-1 1:1 2:19229 
-1 1:0 2:1221 
-1 1:1 2:3777 
-1 1:1 2:3740 
